object,0.011778305,-0.011874849,-0.001495562,0.0043754885,-0.018315678,0.025666775,-0.023156645,-0.025156474,-0.0041479217,-0.013626424,0.0070580184,0.018384637,0.00037001152,0.0012309294,-0.016412392,0.012564445,0.04002417,-0.014867697,0.025515065,-0.022536008,-0.01660548,0.0018257062,-0.01661927,-0.02584607,-0.010323257,0.00030924086,0.018605309,-0.019956917,0.009943979,-0.012136895,0.017198533,-0.014412563,-0.027239054,-0.022094667,-0.03494874,-0.0094060935,-0.023239397,-0.018177759,-0.000562883,-0.0074752243,0.016784774,0.008275156,0.009557805,0.0020774088,-0.014440147,0.00830274,-0.0118817445,-0.0024980626,-0.02312906,0.008068277,0.013129914,0.032686867,-0.020894768,-0.018439805,-0.0053960914,0.0054650507,-0.010619784,0.009937083,0.00488579,-0.0053547155,-0.009364718,-0.0013878125,-0.021501614,0.0026497738,-0.01940524,0.016508935,0.0024946146,0.017501954,-0.00035880558,-0.005799505,0.019915542,0.022784263,0.023887616,0.004523752,0.004275497,-0.024039328,-0.01775021,-0.0033359223,0.024797883,0.02907338,0.015281455,-0.026190868,-0.0036169328,0.012971307,0.013964325,0.0037789878,-0.02290839,0.004320321,0.0037755398,-0.0019343176,-0.004651327,0.013688487,0.0052857557,0.021101648,-0.0060960315,0.014660818,-0.00941299,0.028742375,0.003551421,-0.015860716,0.032383442,0.029900897,-0.035969343,-0.010026731,0.0037720918,0.012854075,0.030783579,0.0036686524,0.031666264,0.0043548006,-0.011433507,0.055388376,-0.004913374,-0.022011915,-0.0028807886,-0.00073829904,-0.014991824,-0.02705976,0.008433763,-0.016936485,-0.0040444825,0.028301032,0.033404045,-0.00565469,0.02133611,-0.0009869847,-0.01875702,-0.0032514466,0.012447214,-0.014205684,0.054891866,-0.0010042246,0.018563934,0.007061466,-0.007882086,0.03205244,-0.04087927,0.00060641376,-0.011819681,-0.041624032,0.031886935,0.023529027,-0.013198874,0.0033014424,-0.019625911,0.022825638,0.020177588,0.017639874,-0.008378595,0.005971904,-0.011861057,-0.0076614153,0.010516344,0.001133524,0.0018446702,0.021211984,0.0030497396,0.030949082,-0.0004100943,-0.0013688487,0.010102586,0.008240676,0.011619698,-0.0057615773,0.0076476233,0.028549287,0.005982248,0.02548748,-0.0056512416,0.01581934,-0.020136213,0.043582488,-0.025804695,0.006361526,0.0015343518,0.020081045,0.007902774,0.014260852,-0.021680908,-0.020494802,-0.026508082,0.013164394,0.011647282,0.025515065,-0.015074575,0.0074131605,0.0014145344,0.002634258,-0.0055236667,0.0034221218,0.008723393,0.015653836,0.01968108,-0.011571426,-0.68761027,-0.0077303746,-0.0006016728,-0.015722796,0.029404387,0.0158883,0.026866673,0.004675463,-0.020894768,0.015860716,-0.0102267135,0.026935631,-0.020632721,-0.025321977,-0.023363523,0.00014136724,0.026025364,-0.015557293,-0.010433592,0.002775625,0.0057270974,0.014715985,0.007882086,-0.0037238202,0.011440403,0.0098957075,0.0063098064,-0.013791926,0.009923291,0.016081385,-0.01675719,0.020218965,0.016384808,0.0028894085,0.016853735,-0.03599693,-0.008923376,0.03801055,0.003211795,0.040686183,0.009199215,-0.008468242,0.020108629,-0.01646756,0.004089306,0.0015671076,0.011736929,0.0049788854,-0.01248859,0.011743825,0.012433422,0.008482034,0.009157839,0.0015602116,0.013419544,-0.017239908,0.009102671,0.0041341297,0.015115951,0.013757447,0.003582453,-0.010695639,-0.03356955,-0.023942783,-0.013226457,0.026521875,-0.012343775,0.015060783,0.0028928565,-0.023004932,0.00078570883,0.0071993857,-0.005623658,-0.0010662883,0.0049444055,0.010985269,0.024894428,-0.015929675,-0.0118679525,0.013991909,0.011302483,-0.009254383,-0.018660476,-0.0063442863,0.040934436,-0.004761663,-0.014398771,-0.01170245,0.02012242,-0.0027342495,0.014922865,0.019184569,0.0037238202,-0.01761229,-0.0040410343,0.0053374753,-0.004513408,0.0049650935,-0.003579005,-0.02348765,-0.02369453,-0.017667457,0.014453939,0.0063167023,0.0018412222,0.013647111,-0.014219476,0.036383104,0.027280431,-0.026825298,0.005799505,-0.0022067083,-0.0007214901,-0.00083829055,-0.0036583084,-0.032990288,-0.002411863,0.000280364,0.029459555,-0.006709772,0.01346092,-0.01925353,0.013591943,-0.00088182127,0.004699599,0.0034583255,-0.01703303,-0.021156816,-0.019143194,-0.0015309039,0.012867867,0.015460749,0.01013017,0.0020567211,0.023349732,-0.0075441836,0.01170245,0.0029118205,0.01313681,-0.030011231,-0.040989604,-0.021363694,0.0041824016,-0.01048876,0.008240676,-0.022784263,0.0033807459,0.016288266,-0.008357908,0.00072450715,0.0004271187,-0.0040272423,-0.014164308,0.01853635,0.011268004,-0.036741693,-0.022880806,0.0012024835,-0.0103853205,0.0103991125,-0.007675207,0.027694188,-0.02248084,-0.00037022703,0.0051478366,-0.051802475,-0.009971563,0.0049030297,-0.0068373475,-0.048161406,0.0056960657,-0.0082268845,-0.022577383,0.019046651,-0.0013197149,0.00562021,-0.0115507385,-0.019060442,0.012729948,0.0007163182,-0.0053822994,-0.0025049585,-0.029128548,0.013309209,0.012936827,0.0102267135,0.018301886,0.029018214,-0.014412563,0.013964325,-0.0018032944,-0.0075303917,0.0111025,-0.0018481181,-0.021956747,0.0015765895,0.022067083,-0.0004083703,0.017129572,0.029818146,0.027570061,-0.015060783,0.021680908,-0.01632964,0.017639874,-0.033073038,0.0041961935,-0.010371529,0.012233439,0.016646855,0.003544525,-0.035665922,-0.015640045,-0.012240334,0.033955723,0.015653836,0.009571597,-0.012536861,-0.012309294,-0.011012853,-0.016936485,-0.003406606,0.01954316,0.025018554,0.0042065377,0.0072614495,0.008764769,0.030397406,-0.0016533071,-0.022549799,0.0051892125,-0.013467816,-0.010412904,0.024494462,-0.018729435,0.015777964,0.030259486,-0.013212666,0.0094060935,0.016260682,0.015212495,0.03086633,0.02263255,-0.020715473,-0.0036755484,-0.01797088,0.029983647,-0.013260937,0.005823641,0.009716412,0.024922011,-0.0074407444,-0.0150194075,0.018605309,0.009695725,-0.010819767,0.0007214901,0.022991141,0.012467901,0.00794415,0.0054512587,0.010681847,-0.0012007596,-0.010799078,0.032686867,0.018894939,-0.00866133,-0.027101135,0.003992763,0.0150194075,-0.020563763,0.00088526926,0.013647111,-0.01206104,0.0073786806,-0.003747956,-0.0019119058,0.014302228,-0.0002644171,-0.009419885,-0.029983647,-0.017129572,-0.0025153025,0.016826151,-0.004720287,-0.010805975,-0.018701851,9.192373E-06,0.013757447,0.011571426,0.003561765,-0.0016938209,0.024191039,-0.008785457,0.017460579,-5.9369933E-05,0.016826151,-0.020356884,-0.009475053,-0.0029669881,-0.020343091,-0.0068304515,0.018122591,-0.0005426261,0.013267833,-0.0006568405,0.010936998,-0.018177759,-5.1881347E-05,-0.012481693,-0.009123359,0.0036134848,-0.026646001,-0.010426696,-0.0042513614,-0.0051409407,-0.0032997185,-0.0230601
Buildings,-0.02008663,-0.005205141,-0.0020891381,-0.016172312,0.0010751497,0.012000473,-0.021593127,-0.0025735993,0.031649318,-0.013030557,0.012830978,0.028044024,-0.0097278515,0.0045130537,0.0029325192,0.0017237805,0.027709248,0.0070367586,0.005694431,-0.023601789,-0.023833558,-0.0035280362,0.014640063,-0.009631282,0.0017447041,-0.006656915,0.015206609,-0.036181685,-0.0041975905,0.0007637104,0.026421644,-0.03775256,-0.02021539,-0.023254137,-0.017884826,-0.0028633105,-0.013622855,0.0113953,-0.015270989,0.0027844447,0.014743071,-0.00086510926,-0.007970272,-0.013455466,-0.012296623,0.01885053,0.021477243,0.019159554,-0.042284932,-0.0064315842,-0.003479751,0.024915146,-0.0181681,-0.018219603,-0.008440247,-0.0030580605,0.0014759166,0.017138015,-0.0031433643,-0.019417075,0.0004993491,-0.0097278515,-0.038782645,0.0054208147,-0.03177808,-0.009657034,0.0011290682,0.0059455135,-0.0008417714,-0.011157093,0.026473148,0.03659372,-0.009071173,-0.014472675,0.0018493219,-0.0076033045,0.026859429,-0.002998509,-0.0052663023,0.0024995622,0.010172076,-0.035331868,-0.010777249,0.017434165,0.019520083,-0.010281522,0.0023772398,0.022249805,0.009966059,-0.009856612,0.02760624,0.028404554,-0.003173945,0.03213861,-0.015232361,-0.02894535,0.0006627139,0.014614311,0.016455585,-0.02044716,-0.0042169048,0.016880494,-0.037134513,-0.0053371205,0.0002655684,-0.0006421927,0.0005625222,0.0005182608,0.037495043,-0.014434046,-0.016816115,0.019841984,0.0033735237,-0.01591479,0.008086156,-0.017485669,0.03378674,-0.017138015,0.0037115198,-0.0033477717,0.010127009,0.009618405,0.019223934,0.005984142,0.028430307,0.00051262754,-0.023215508,-0.012818103,-0.005668679,-0.011105589,-0.00028206586,0.004619281,-0.015515634,-0.014343914,-0.008897346,0.0016191626,0.018180976,0.030876756,-0.007777131,-0.025970982,-0.014627187,0.012154986,-0.034533553,-0.008079718,0.0086398255,0.0070303204,-0.024013823,-7.413785E-05,-0.008832967,-0.017331157,0.018902034,-0.0025285333,0.0053886245,0.011234349,0.006907998,0.0009946744,-0.016172312,0.011485432,-0.019378448,-0.00043778552,0.007899453,-0.0012610477,0.012425383,-0.0022372128,0.022417193,-0.0074809818,0.017086511,0.024451608,-0.01910805,-0.009270752,-0.015309617,0.012283746,-0.038293358,0.013094937,-0.0028295107,0.019339819,0.00432957,0.017279651,-0.024168335,-0.016069304,-0.025597576,-0.015245236,0.0068178657,0.0332717,-0.0011612583,0.0033413335,0.026910933,-0.00074560347,0.006341452,-0.010751497,0.009811546,0.0116721345,0.022700466,-0.0067084194,-0.702929,-0.011047646,3.3447537E-05,-0.0148332035,-0.0071140146,0.009586215,0.024722006,0.016970627,-0.017846199,-0.025533196,0.0004683661,0.014575683,0.006225568,0.0116463825,-0.004422921,-0.01588904,0.013455466,-0.011285854,0.008935975,0.01516798,-0.006605411,0.028250042,-0.0017205614,0.0009085659,0.033812493,-0.009470331,-0.016455585,-0.004358541,-0.0019748632,0.021593127,-0.027451728,0.011414614,0.003164288,-0.005031314,0.038628135,0.027297216,-0.03350347,0.046250753,0.025275676,0.031340294,-0.008028214,-0.0033413335,0.014176525,0.003447561,0.0022130702,0.0024029918,0.03561514,-0.01842562,0.016970627,-0.030593483,0.017730314,-0.012798788,-0.02008663,0.023267012,0.0061483113,0.0016674477,0.028687827,-0.0021213284,0.0042555328,-0.011678573,0.014202277,0.0007810126,-0.025340056,-0.027425975,-0.018155223,-0.013082061,-0.017717438,0.022314185,-0.005414377,-0.007989585,0.006106464,0.019867737,0.0061386544,0.0024625435,0.011240787,0.007435916,0.035769653,-0.040147506,-0.01253483,-0.0069916924,-0.0058746953,-0.0084853135,-0.0097536035,-0.015052096,0.0074681058,-0.03007844,-0.024322849,-0.012715094,0.018927786,0.0012344908,0.008935975,-0.0003221023,0.0075518,-0.014331038,-0.029537646,0.0076612467,0.0006112097,0.008002462,0.0010502024,0.00807328,-0.027065447,-0.01035234,-0.0015620252,0.022468697,-0.0096505955,-0.0052823974,0.00044180927,0.019417075,0.016404081,-0.03388975,0.006363985,-0.010184951,-0.017022131,0.0012505859,0.008118346,-0.031237284,0.036052924,-0.032730907,0.0115691265,-0.009405951,0.0009294895,0.008092594,0.007558238,-0.007513172,0.003753367,0.024696253,-0.01614656,-0.01442117,-0.007094701,-0.0011870103,2.448209E-05,0.0067985514,0.020691805,0.0029711472,0.043469526,0.013107814,0.011916779,-0.028095528,0.027477479,-0.009747166,-0.032730907,-0.018515753,0.004529149,0.008118346,0.00816985,-0.02639589,-0.020666052,0.0047544795,-0.015824659,-0.0027039694,0.0063543282,-0.014434046,-0.0148074515,0.0127086565,-0.0033509906,-0.017498545,0.013648608,0.006985254,0.0023128595,-0.008021776,-0.003766243,-0.0031353168,-0.006753485,-0.0016256006,-0.0027490356,-0.018464249,-0.011768705,0.0004824493,-0.0015056925,-0.014253781,0.029022604,-0.02119397,0.010957514,0.019507207,0.0014702834,0.0063929562,-0.0048092026,-0.0059455135,-0.010751497,0.014794575,0.020138133,0.001731828,-0.02385931,0.017653057,0.015940543,0.001087221,0.037855573,-0.0073264693,-0.01057767,0.012084167,0.0031626786,-0.0010566404,0.027580488,0.0027200645,0.017086511,0.006267415,-0.0055399183,0.009206372,-0.0076483707,0.020962201,0.015876163,0.01038453,0.028481811,-0.006959502,0.012509078,-0.018605884,0.0038789085,-0.025018156,0.029254373,0.0064058322,0.014537054,-0.032576393,-0.033065684,0.004532368,0.009322256,0.024696253,-0.0015081067,0.017756065,-0.0027989303,-0.020820564,0.018129472,-0.014228029,0.03141755,-0.011215035,-0.019352695,0.0048607066,0.002448058,0.034533553,-0.006141873,-0.015425501,-0.019017918,0.008684892,-0.010526166,-0.00914843,0.00914843,0.021541623,0.014137897,-0.032524887,0.0046836613,0.015361121,0.023601789,0.019764729,-0.013146441,-0.0041460865,0.034327537,-0.004561339,0.028430307,0.010854506,-0.009953182,0.00095926534,0.002008663,0.00927719,-0.008150537,-0.0047770124,-0.0053757485,-0.005575327,0.053821865,0.014717319,0.029305877,0.021631755,0.0018010368,-0.021232598,0.034198776,0.008214916,0.006090369,-0.00078342686,0.0042169048,-0.016352577,0.0026138371,-0.034095768,0.0014823546,0.012650714,0.021309854,-0.0016545717,-0.00014747094,0.0076612467,-0.008684892,0.019288315,0.018206727,0.018889157,0.013661483,0.0013318659,0.010796564,0.0040752683,-0.0036696726,-0.014846079,-0.037392035,-0.0019426732,-0.010687117,0.014614311,-0.0024915147,-0.007094701,-0.03414727,-0.008543256,-0.0013592275,0.010043315,0.0127086565,-0.019223934,-0.01266359,-0.0007403726,-0.011021894,-0.011137779,0.026833678,-0.0018927786,0.03525461,0.007757817,-0.0097793555,-0.001647329,-0.020408532,-0.017434165,-0.0013350849,0.00829861,0.003476532,0.011054085,0.0004619281,-0.0037340529,-0.015258113,-0.025507445
