object,0.011778305,-0.011874849,-0.001495562,0.0043754885,-0.018315678,0.025666775,-0.023156645,-0.025156474,-0.0041479217,-0.013626424,0.0070580184,0.018384637,0.00037001152,0.0012309294,-0.016412392,0.012564445,0.04002417,-0.014867697,0.025515065,-0.022536008,-0.01660548,0.0018257062,-0.01661927,-0.02584607,-0.010323257,0.00030924086,0.018605309,-0.019956917,0.009943979,-0.012136895,0.017198533,-0.014412563,-0.027239054,-0.022094667,-0.03494874,-0.0094060935,-0.023239397,-0.018177759,-0.000562883,-0.0074752243,0.016784774,0.008275156,0.009557805,0.0020774088,-0.014440147,0.00830274,-0.0118817445,-0.0024980626,-0.02312906,0.008068277,0.013129914,0.032686867,-0.020894768,-0.018439805,-0.0053960914,0.0054650507,-0.010619784,0.009937083,0.00488579,-0.0053547155,-0.009364718,-0.0013878125,-0.021501614,0.0026497738,-0.01940524,0.016508935,0.0024946146,0.017501954,-0.00035880558,-0.005799505,0.019915542,0.022784263,0.023887616,0.004523752,0.004275497,-0.024039328,-0.01775021,-0.0033359223,0.024797883,0.02907338,0.015281455,-0.026190868,-0.0036169328,0.012971307,0.013964325,0.0037789878,-0.02290839,0.004320321,0.0037755398,-0.0019343176,-0.004651327,0.013688487,0.0052857557,0.021101648,-0.0060960315,0.014660818,-0.00941299,0.028742375,0.003551421,-0.015860716,0.032383442,0.029900897,-0.035969343,-0.010026731,0.0037720918,0.012854075,0.030783579,0.0036686524,0.031666264,0.0043548006,-0.011433507,0.055388376,-0.004913374,-0.022011915,-0.0028807886,-0.00073829904,-0.014991824,-0.02705976,0.008433763,-0.016936485,-0.0040444825,0.028301032,0.033404045,-0.00565469,0.02133611,-0.0009869847,-0.01875702,-0.0032514466,0.012447214,-0.014205684,0.054891866,-0.0010042246,0.018563934,0.007061466,-0.007882086,0.03205244,-0.04087927,0.00060641376,-0.011819681,-0.041624032,0.031886935,0.023529027,-0.013198874,0.0033014424,-0.019625911,0.022825638,0.020177588,0.017639874,-0.008378595,0.005971904,-0.011861057,-0.0076614153,0.010516344,0.001133524,0.0018446702,0.021211984,0.0030497396,0.030949082,-0.0004100943,-0.0013688487,0.010102586,0.008240676,0.011619698,-0.0057615773,0.0076476233,0.028549287,0.005982248,0.02548748,-0.0056512416,0.01581934,-0.020136213,0.043582488,-0.025804695,0.006361526,0.0015343518,0.020081045,0.007902774,0.014260852,-0.021680908,-0.020494802,-0.026508082,0.013164394,0.011647282,0.025515065,-0.015074575,0.0074131605,0.0014145344,0.002634258,-0.0055236667,0.0034221218,0.008723393,0.015653836,0.01968108,-0.011571426,-0.68761027,-0.0077303746,-0.0006016728,-0.015722796,0.029404387,0.0158883,0.026866673,0.004675463,-0.020894768,0.015860716,-0.0102267135,0.026935631,-0.020632721,-0.025321977,-0.023363523,0.00014136724,0.026025364,-0.015557293,-0.010433592,0.002775625,0.0057270974,0.014715985,0.007882086,-0.0037238202,0.011440403,0.0098957075,0.0063098064,-0.013791926,0.009923291,0.016081385,-0.01675719,0.020218965,0.016384808,0.0028894085,0.016853735,-0.03599693,-0.008923376,0.03801055,0.003211795,0.040686183,0.009199215,-0.008468242,0.020108629,-0.01646756,0.004089306,0.0015671076,0.011736929,0.0049788854,-0.01248859,0.011743825,0.012433422,0.008482034,0.009157839,0.0015602116,0.013419544,-0.017239908,0.009102671,0.0041341297,0.015115951,0.013757447,0.003582453,-0.010695639,-0.03356955,-0.023942783,-0.013226457,0.026521875,-0.012343775,0.015060783,0.0028928565,-0.023004932,0.00078570883,0.0071993857,-0.005623658,-0.0010662883,0.0049444055,0.010985269,0.024894428,-0.015929675,-0.0118679525,0.013991909,0.011302483,-0.009254383,-0.018660476,-0.0063442863,0.040934436,-0.004761663,-0.014398771,-0.01170245,0.02012242,-0.0027342495,0.014922865,0.019184569,0.0037238202,-0.01761229,-0.0040410343,0.0053374753,-0.004513408,0.0049650935,-0.003579005,-0.02348765,-0.02369453,-0.017667457,0.014453939,0.0063167023,0.0018412222,0.013647111,-0.014219476,0.036383104,0.027280431,-0.026825298,0.005799505,-0.0022067083,-0.0007214901,-0.00083829055,-0.0036583084,-0.032990288,-0.002411863,0.000280364,0.029459555,-0.006709772,0.01346092,-0.01925353,0.013591943,-0.00088182127,0.004699599,0.0034583255,-0.01703303,-0.021156816,-0.019143194,-0.0015309039,0.012867867,0.015460749,0.01013017,0.0020567211,0.023349732,-0.0075441836,0.01170245,0.0029118205,0.01313681,-0.030011231,-0.040989604,-0.021363694,0.0041824016,-0.01048876,0.008240676,-0.022784263,0.0033807459,0.016288266,-0.008357908,0.00072450715,0.0004271187,-0.0040272423,-0.014164308,0.01853635,0.011268004,-0.036741693,-0.022880806,0.0012024835,-0.0103853205,0.0103991125,-0.007675207,0.027694188,-0.02248084,-0.00037022703,0.0051478366,-0.051802475,-0.009971563,0.0049030297,-0.0068373475,-0.048161406,0.0056960657,-0.0082268845,-0.022577383,0.019046651,-0.0013197149,0.00562021,-0.0115507385,-0.019060442,0.012729948,0.0007163182,-0.0053822994,-0.0025049585,-0.029128548,0.013309209,0.012936827,0.0102267135,0.018301886,0.029018214,-0.014412563,0.013964325,-0.0018032944,-0.0075303917,0.0111025,-0.0018481181,-0.021956747,0.0015765895,0.022067083,-0.0004083703,0.017129572,0.029818146,0.027570061,-0.015060783,0.021680908,-0.01632964,0.017639874,-0.033073038,0.0041961935,-0.010371529,0.012233439,0.016646855,0.003544525,-0.035665922,-0.015640045,-0.012240334,0.033955723,0.015653836,0.009571597,-0.012536861,-0.012309294,-0.011012853,-0.016936485,-0.003406606,0.01954316,0.025018554,0.0042065377,0.0072614495,0.008764769,0.030397406,-0.0016533071,-0.022549799,0.0051892125,-0.013467816,-0.010412904,0.024494462,-0.018729435,0.015777964,0.030259486,-0.013212666,0.0094060935,0.016260682,0.015212495,0.03086633,0.02263255,-0.020715473,-0.0036755484,-0.01797088,0.029983647,-0.013260937,0.005823641,0.009716412,0.024922011,-0.0074407444,-0.0150194075,0.018605309,0.009695725,-0.010819767,0.0007214901,0.022991141,0.012467901,0.00794415,0.0054512587,0.010681847,-0.0012007596,-0.010799078,0.032686867,0.018894939,-0.00866133,-0.027101135,0.003992763,0.0150194075,-0.020563763,0.00088526926,0.013647111,-0.01206104,0.0073786806,-0.003747956,-0.0019119058,0.014302228,-0.0002644171,-0.009419885,-0.029983647,-0.017129572,-0.0025153025,0.016826151,-0.004720287,-0.010805975,-0.018701851,9.192373E-06,0.013757447,0.011571426,0.003561765,-0.0016938209,0.024191039,-0.008785457,0.017460579,-5.9369933E-05,0.016826151,-0.020356884,-0.009475053,-0.0029669881,-0.020343091,-0.0068304515,0.018122591,-0.0005426261,0.013267833,-0.0006568405,0.010936998,-0.018177759,-5.1881347E-05,-0.012481693,-0.009123359,0.0036134848,-0.026646001,-0.010426696,-0.0042513614,-0.0051409407,-0.0032997185,-0.0230601
Sphere,0.0050722742,-0.0033541906,-0.012678977,-0.028855603,-0.009167666,0.0047341227,-0.028637,-0.019660613,-0.00375724,-0.033446267,0.014250186,0.019073118,-0.0064112176,-0.0069440627,-0.013560221,0.0012663606,0.027052129,-0.002891367,0.013908619,-0.021382112,-0.016682146,-0.009789318,0.016682146,-4.3229607E-05,-0.0145371035,-0.0076442757,0.024415229,-0.014099897,-0.0013321124,-0.017911788,0.022147221,-0.015015298,-0.0028947827,-0.03270848,-0.010486116,0.01772051,0.013840306,-0.0034447059,-0.013915451,0.0031031386,0.009721004,0.029156182,-0.011312708,-0.021136183,-0.016668484,0.02020712,0.0033900551,-7.284989E-05,-0.012241771,-0.009700511,0.012344241,0.023499828,-0.040195636,0.008791941,-0.0033781005,0.0059330235,-0.003089476,0.0031270485,0.0070704427,-0.025002725,0.017501907,-0.00043848698,0.0019144845,0.022557102,-0.0058373846,0.0066844714,-0.0084093865,-0.009188159,0.003132172,0.0023533986,0.04437642,0.0045565073,0.0021928619,-0.020548686,0.011640613,-0.029757341,0.005898867,-0.004495025,0.016887086,-0.0047307066,0.020138806,-0.0073095397,-0.02370477,0.006732291,0.021901295,0.003371269,-0.023431515,0.029484088,-0.0013474829,0.008491362,0.018089402,0.013765161,0.005044949,0.01375833,-0.012808773,0.002244097,0.0089968825,0.018185042,-0.0035830408,-0.035686947,-0.00092308555,0.025781497,-0.041698534,-0.017023712,-0.016750459,0.015015298,0.01893649,0.0029613883,0.01604,0.0027547402,0.015698431,0.016080987,0.012993219,-0.047628142,-0.009420426,-0.01467373,0.023240237,-0.00802,-0.00333882,-0.018772537,0.037709028,0.012952231,0.036534037,-0.012726797,0.017857138,-0.0028503789,-0.022010595,-0.015274889,0.0075349743,-0.00012851469,0.009092521,0.009160834,0.016695809,0.0075418055,-0.0035147273,-0.0068962434,-0.010855008,0.021764666,-0.002431959,-0.022885008,0.001063982,0.026478294,-0.022721056,-0.00715925,-0.014031583,0.010650068,0.0033097868,0.0025207666,0.0031355876,-0.017624872,0.009345281,-0.0093931,0.027981192,0.0032705066,-0.001157913,0.0060901446,-0.024005348,0.044458397,-0.006284838,-0.002597619,-0.0034839862,0.007084105,0.029566063,-0.008320578,-0.002098931,0.013116184,-0.0010392184,0.016381567,-0.0075827935,-0.009741499,-0.00020109773,0.031697445,-0.034867186,0.005772487,-0.018362656,0.025221327,0.016340578,0.005721252,-0.021450425,-0.026696898,-0.024702145,-0.012310085,0.024866099,0.038884018,0.0051610814,0.0019025297,0.0025071038,-0.016982725,0.015165587,-0.034184054,0.018881839,0.02406,0.013539727,-0.015917035,-0.6794183,-0.04620722,-0.0030433645,-0.021450425,0.01635424,0.0016506239,0.0152339,0.009078858,-0.027885552,-0.0128019415,0.003162913,0.0063224104,-0.011845553,-0.0072685517,-0.017242316,0.0010306792,0.006564923,0.010984804,0.005594872,0.011059948,-0.016203951,0.013737836,0.00033751116,-0.0049527255,0.016695809,0.0075008175,0.008771447,-0.007330034,-0.0054958174,0.008388892,-0.007138756,0.009311124,-0.0028879512,0.0016685561,0.02716143,-0.003579625,-0.026929164,0.037736353,0.01467373,0.044813626,-0.0059432704,-0.0068620867,0.037299145,-0.005936439,-0.011053117,0.013341618,0.03183407,-0.013703679,-0.008006337,-0.005553884,0.003716252,-0.009973764,0.031260237,0.03732647,0.0152339,-0.020384734,0.030686405,0.0076852636,0.00069637026,0.010609079,0.009536559,0.0077330833,-0.014414139,-0.021723678,0.006807436,0.00954339,-0.032216627,0.012487699,0.005823722,-0.013095689,0.02630068,0.01553448,-0.018567597,-0.0064351275,0.009816644,0.031506166,0.015876047,-0.019182418,-0.010895996,0.017638534,0.0009102768,-0.0068655023,-0.028199794,-0.01482402,0.007938024,-0.024292264,-0.028800953,-0.005434335,0.024428891,-0.0010264097,0.0013688309,0.034238704,-0.025371617,-0.03177942,0.0024370826,0.0021330877,-0.013109352,0.009707342,0.013164002,-0.020780953,-0.010533934,-0.00670155,0.0005059465,0.0021467502,0.01208465,-0.003140711,-0.019319044,0.010677393,0.033992775,-0.037900306,0.0020118312,0.0012655067,-0.023595467,-0.0012441588,0.0107866945,-0.033692196,0.023376863,0.016777784,0.016969062,-0.012713134,0.017734174,0.0044642845,0.00761695,-0.009864463,-0.013000051,0.015165587,0.0075622993,-0.0093042925,-0.035495672,-0.0052533047,0.0113468645,0.017488245,0.01792545,-0.013929114,0.046179894,0.023814071,0.015274889,-0.03052245,0.003928024,-0.020138806,-0.026273355,-0.022557102,0.0056392755,-0.0086621465,-0.004177368,-0.031287562,-0.021190833,-0.012631157,-0.025480919,-0.00817712,0.0017061286,0.0048160986,0.004361814,0.007234395,0.013532896,-0.027229743,-0.00028862435,-0.02132746,-0.004559923,-0.011428841,0.011886541,0.02579516,-0.02934746,-0.0020067077,-0.014933322,-0.030959658,-0.014086234,-0.0020203704,-0.010431465,-0.029538738,0.014960647,-0.014591754,0.0075008175,0.019687938,-0.0092769675,0.023841396,-0.0049595567,-0.00949557,0.003057027,0.009099352,-0.00057084434,0.004751201,-0.026273355,0.015056285,0.018348994,0.017529232,0.024087325,0.034184054,-0.028035842,-0.007336865,-0.010574923,0.019988516,0.005239642,-0.0039724275,-0.014113559,-0.028145144,0.00072070694,-0.005314787,0.00123135,0.016067324,0.018185042,-0.010984804,0.02742102,-0.0093042925,0.01893649,-0.030986983,0.00090344547,-0.010752538,0.014332163,0.019250732,0.0150699485,-0.02482511,-0.024401566,-0.009659522,0.015575468,0.037709028,0.012323747,0.0021740757,-0.001868373,-0.0057793185,-0.0045360136,0.015780408,0.01807574,0.0010545889,-0.0020203704,0.028090492,-0.00034178075,0.033692196,-0.0020698977,-0.022939658,0.010404139,-0.00081677275,0.0033063712,0.029128857,0.0065410133,0.010554429,0.01203,0.006356567,0.027653286,0.010615911,-0.0017915204,0.0179801,0.0064419587,-0.017078364,0.009317955,-0.004102223,0.035195094,-0.015520817,-0.016340578,0.0012501362,-0.030276524,-0.0023670613,-0.008231771,0.02132746,0.023950698,0.0016531856,0.0023551064,0.015548143,0.00016469946,0.032872435,0.025303304,0.0021296719,-0.0013141801,-0.013191328,0.024428891,-0.012924906,0.004990298,-0.010930153,0.0010784987,0.013881294,-0.008778279,-0.005468492,0.00022201873,-0.023568142,0.004669225,-0.0086621465,-0.013286967,0.020576013,0.01172942,-0.0017522401,-0.02457918,-0.02959339,0.00502787,-0.0010631281,-0.0028572103,-0.013737836,-0.03000327,0.0026334836,-0.0019503492,0.021108858,-0.0054138415,0.0032107325,0.0017035668,0.00019362595,-0.0055914563,-0.019127768,0.0051098466,-0.00046709325,0.014591754,-0.0019452256,-0.0047648633,-0.019578636,0.007610119,-0.010629574,0.02615039,-0.010725212,-0.018649573,-0.054814715,-0.009536559,-0.012733628,-0.0038323847,-0.0057793185,-0.011784071,0.010315332,-0.014072572,-0.013300629,-0.022611754,-0.02411465
Cube,0.014195597,-0.017587591,-0.002893067,-0.029082287,0.00040570812,0.011022215,-0.020196816,-0.031169666,0.0044039497,-0.024018979,0.021494377,0.024315162,0.0075314944,0.0007073998,-0.032749306,-0.0023729848,0.023200952,0.009231017,0.028080909,-0.026585892,-0.011261982,-0.0018246949,0.009682342,-0.02640254,-0.022580378,-0.0075738057,0.01661442,-0.0008488798,0.013222426,-0.0074398187,0.017742733,-0.009174601,-0.035626505,-0.024498511,-0.023370199,0.014125078,0.023454823,-0.0017004041,0.007048435,0.0004513255,0.025133189,0.0105356295,-0.0026691672,-0.0012878644,-0.01747476,0.02905408,-0.016205406,-0.0015531944,-0.024611343,-0.002891304,0.010733085,0.023102224,-0.026120463,-0.0014386,0.0016624997,-0.005098568,-0.0006536286,0.016896497,0.0016766037,-0.015655354,0.008448249,-0.014893741,0.0119742295,0.016896497,0.012425555,0.0047389176,0.016445173,-0.0038186368,-0.0040196176,-0.007182422,0.009012406,0.01992884,0.017615799,-0.011783826,0.022523964,-0.021437962,-0.0116709955,-0.0040901373,0.009252173,0.0019586822,0.004375742,-0.007926404,-0.007841781,0.016952913,0.02183287,0.016346445,-0.00830721,0.024033083,-0.004872905,0.008109755,0.015528418,0.029082287,0.008582236,0.009400263,-0.014294324,0.019801905,0.01571177,0.01935058,-0.022594482,-0.036134247,0.015189923,0.027502647,-0.04744559,-0.023440719,-0.013032024,-0.0011688625,0.02830657,0.006427862,0.017291408,0.001269353,0.0016898261,0.03283393,0.01147354,-0.047812294,-0.0059871147,-0.029082287,0.010098408,-0.021550793,-0.015768185,-0.013737219,0.027488543,0.009985576,0.04056288,-0.014823222,0.008194379,-0.007820625,-0.034469984,0.0039455723,0.009752862,-0.009844537,0.029505404,0.004516781,0.023243263,0.016445173,-0.014195597,0.013060232,-0.020634037,0.02204443,-0.0016025581,-0.035739336,0.01327179,0.02276373,-0.039293528,-0.006611213,-0.0075244424,0.0038680006,0.013758375,0.00068271795,0.016233614,-0.0028313622,0.0072917277,-0.011297241,0.010168928,0.016092574,0.0062127775,0.017446551,-0.015443794,0.020507103,-0.019942945,-0.009844537,-0.00022830724,-0.0049434244,0.0026356704,-0.018405618,0.012615958,0.004534411,0.021311026,0.019985257,-0.013850051,0.00888547,0.0037586952,0.023271471,-0.026416644,0.012573646,-0.016924705,0.0075314944,0.005877809,0.009562459,-0.011226722,-0.015725873,-0.021931598,-0.0075949617,0.02125461,0.022199573,-0.007341091,-0.007312883,-0.0020344907,-0.015077093,0.0051514576,-0.015739977,0.016741356,0.018983878,0.014837326,-0.013645545,-0.67518294,-0.029900314,-0.0029441935,-0.024089498,0.018856943,0.03060551,-0.0033655483,0.0055393153,-0.031197874,-0.016275926,0.0039420463,0.019519828,-0.0024523195,-0.014301376,-0.012115269,-0.0015047122,0.015697666,-0.0008422686,-0.0022865983,0.022002118,-0.00827195,0.01754528,-0.013180114,0.00325448,0.012489023,-0.0020027568,0.014907845,-0.014167389,0.0019622082,-0.0016695517,-0.017573487,0.009245121,-0.008850211,-0.009555407,0.035598297,0.020055776,-0.013469245,0.025612721,0.015725873,0.036924068,0.0046507684,-0.026332023,0.033031385,-0.0035453732,-0.010507422,-0.0079405075,0.031592786,0.01471039,-0.004463891,-0.0033919932,0.0040513515,-0.007566754,0.011346605,0.017460655,-0.002515787,-0.013144855,0.026529476,0.012051801,-0.002903645,-0.0017153894,0.009470783,-0.0054758475,-0.0316492,-0.020902012,-0.013518609,0.0023941407,-0.022453444,-0.0014156811,0.012002437,0.0029177489,0.002184345,0.018222267,-0.02100074,0.0027502647,0.006346765,0.04157836,0.024893422,-0.02758727,-0.002540469,-1.0963596E-05,0.009301537,-0.016741356,-0.030238807,-0.0047988594,0.01121967,-0.011043371,-0.019068502,0.014766806,0.017164472,0.016783666,0.014992469,0.02654358,-0.012192841,-0.0122563075,0.012164633,0.006311505,0.0018952144,0.011685099,0.007827677,-0.033680163,-0.010302915,-0.008610444,0.005779082,-0.0061457837,0.003266821,0.010627305,-0.023638172,0.0069708633,0.047360968,-0.028997663,-0.009280381,-0.009357952,-0.0016677887,-0.0074398187,0.0039773057,-0.039039657,0.024315162,0.01320127,0.010246499,-0.016656732,0.004312274,0.0015505499,0.0069144475,-0.0055111074,-0.010373434,0.010218292,-0.0045873006,-0.0069849673,-0.031705614,0.010838863,0.008109755,-0.0012358561,0.0074750786,-0.017700423,0.036134247,0.012890984,0.020563519,-0.040196177,0.014407156,-0.0151053,-0.041239865,-0.01629003,0.0033990452,-0.009259225,0.0137019595,-0.013363466,-0.028602753,-0.01035933,-0.0145552475,0.0031892492,0.004153605,0.004678976,-0.0017471233,0.011339553,0.019689074,-0.028800208,-0.02255217,-0.027812934,0.01010546,-0.013363466,0.02093022,0.0114030205,-0.0128345685,0.0018476137,-0.010020836,-0.010288811,0.012383243,-0.0004253214,-0.013441037,-0.034582816,0.017869668,-0.023186848,-0.0074539226,0.021790558,-0.0043968977,0.018730007,0.021409754,-0.011015163,0.01837741,0.0076936893,0.02308812,0.009322693,-0.014160337,-0.00027458573,0.014978365,0.018335098,0.031959485,0.03805238,-0.020507103,0.012164633,0.016374653,0.010867071,0.013187166,-0.005627465,-0.012919192,0.0045485147,-0.0008942768,0.014188545,0.0049328464,0.03074655,0.019364685,-0.008391833,0.015655354,-0.008645704,0.02686797,-0.045442834,0.013123699,-0.0010101934,0.032269772,0.019294165,0.018165851,-0.011283137,-0.010006732,-0.000102253434,0.02053531,0.025189605,-0.0012578935,-0.0027255828,-0.011311345,-0.015951535,-0.020676348,0.004901113,0.035795752,0.020521207,-0.024357473,0.019477516,0.0042205984,0.03336988,0.013828895,-0.03531622,-0.005976537,0.008398885,-0.003250954,0.018264579,0.01999936,0.010972851,0.019195437,0.00971055,0.036839444,0.016374653,-0.009174601,0.038813993,0.016261822,-0.007771261,-0.0013592654,-0.016233614,0.048630323,0.0007867344,-0.0034060972,0.011847294,-0.02722057,0.008645704,-0.037065107,0.018997982,0.0016968781,0.010592045,0.027107738,0.023045808,0.021339234,0.034357153,0.019251853,-0.0068016164,-0.009111133,-0.0071260063,0.015669458,0.004488573,0.0102253435,-0.03988589,0.006590057,0.0040090396,-0.008680964,-0.0022037379,0.021099467,-0.013229478,-0.0016651442,-0.0025880695,-0.0020926695,0.024837006,0.009033562,0.0053665424,0.0008299276,-0.036021415,0.011466488,0.007862937,0.0040619294,-0.016811874,-0.043581117,-0.00124996,-0.006678207,0.019900633,-0.009329745,0.0039914097,0.004908165,0.0007272335,-0.010852967,-0.0070766425,0.0039526243,-0.0030411582,0.0011133283,-0.007326987,-0.018997982,-0.011339553,0.011417124,-0.015697666,0.016332341,0.0087937955,0.010049044,-0.026148671,0.00045837744,-0.02492163,-0.0045802486,-0.0074891825,-0.022848353,0.011240826,-0.01557073,-0.0063643944,-0.035767544,-0.02064814
Buildings,-0.02008663,-0.005205141,-0.0020891381,-0.016172312,0.0010751497,0.012000473,-0.021593127,-0.0025735993,0.031649318,-0.013030557,0.012830978,0.028044024,-0.0097278515,0.0045130537,0.0029325192,0.0017237805,0.027709248,0.0070367586,0.005694431,-0.023601789,-0.023833558,-0.0035280362,0.014640063,-0.009631282,0.0017447041,-0.006656915,0.015206609,-0.036181685,-0.0041975905,0.0007637104,0.026421644,-0.03775256,-0.02021539,-0.023254137,-0.017884826,-0.0028633105,-0.013622855,0.0113953,-0.015270989,0.0027844447,0.014743071,-0.00086510926,-0.007970272,-0.013455466,-0.012296623,0.01885053,0.021477243,0.019159554,-0.042284932,-0.0064315842,-0.003479751,0.024915146,-0.0181681,-0.018219603,-0.008440247,-0.0030580605,0.0014759166,0.017138015,-0.0031433643,-0.019417075,0.0004993491,-0.0097278515,-0.038782645,0.0054208147,-0.03177808,-0.009657034,0.0011290682,0.0059455135,-0.0008417714,-0.011157093,0.026473148,0.03659372,-0.009071173,-0.014472675,0.0018493219,-0.0076033045,0.026859429,-0.002998509,-0.0052663023,0.0024995622,0.010172076,-0.035331868,-0.010777249,0.017434165,0.019520083,-0.010281522,0.0023772398,0.022249805,0.009966059,-0.009856612,0.02760624,0.028404554,-0.003173945,0.03213861,-0.015232361,-0.02894535,0.0006627139,0.014614311,0.016455585,-0.02044716,-0.0042169048,0.016880494,-0.037134513,-0.0053371205,0.0002655684,-0.0006421927,0.0005625222,0.0005182608,0.037495043,-0.014434046,-0.016816115,0.019841984,0.0033735237,-0.01591479,0.008086156,-0.017485669,0.03378674,-0.017138015,0.0037115198,-0.0033477717,0.010127009,0.009618405,0.019223934,0.005984142,0.028430307,0.00051262754,-0.023215508,-0.012818103,-0.005668679,-0.011105589,-0.00028206586,0.004619281,-0.015515634,-0.014343914,-0.008897346,0.0016191626,0.018180976,0.030876756,-0.007777131,-0.025970982,-0.014627187,0.012154986,-0.034533553,-0.008079718,0.0086398255,0.0070303204,-0.024013823,-7.413785E-05,-0.008832967,-0.017331157,0.018902034,-0.0025285333,0.0053886245,0.011234349,0.006907998,0.0009946744,-0.016172312,0.011485432,-0.019378448,-0.00043778552,0.007899453,-0.0012610477,0.012425383,-0.0022372128,0.022417193,-0.0074809818,0.017086511,0.024451608,-0.01910805,-0.009270752,-0.015309617,0.012283746,-0.038293358,0.013094937,-0.0028295107,0.019339819,0.00432957,0.017279651,-0.024168335,-0.016069304,-0.025597576,-0.015245236,0.0068178657,0.0332717,-0.0011612583,0.0033413335,0.026910933,-0.00074560347,0.006341452,-0.010751497,0.009811546,0.0116721345,0.022700466,-0.0067084194,-0.702929,-0.011047646,3.3447537E-05,-0.0148332035,-0.0071140146,0.009586215,0.024722006,0.016970627,-0.017846199,-0.025533196,0.0004683661,0.014575683,0.006225568,0.0116463825,-0.004422921,-0.01588904,0.013455466,-0.011285854,0.008935975,0.01516798,-0.006605411,0.028250042,-0.0017205614,0.0009085659,0.033812493,-0.009470331,-0.016455585,-0.004358541,-0.0019748632,0.021593127,-0.027451728,0.011414614,0.003164288,-0.005031314,0.038628135,0.027297216,-0.03350347,0.046250753,0.025275676,0.031340294,-0.008028214,-0.0033413335,0.014176525,0.003447561,0.0022130702,0.0024029918,0.03561514,-0.01842562,0.016970627,-0.030593483,0.017730314,-0.012798788,-0.02008663,0.023267012,0.0061483113,0.0016674477,0.028687827,-0.0021213284,0.0042555328,-0.011678573,0.014202277,0.0007810126,-0.025340056,-0.027425975,-0.018155223,-0.013082061,-0.017717438,0.022314185,-0.005414377,-0.007989585,0.006106464,0.019867737,0.0061386544,0.0024625435,0.011240787,0.007435916,0.035769653,-0.040147506,-0.01253483,-0.0069916924,-0.0058746953,-0.0084853135,-0.0097536035,-0.015052096,0.0074681058,-0.03007844,-0.024322849,-0.012715094,0.018927786,0.0012344908,0.008935975,-0.0003221023,0.0075518,-0.014331038,-0.029537646,0.0076612467,0.0006112097,0.008002462,0.0010502024,0.00807328,-0.027065447,-0.01035234,-0.0015620252,0.022468697,-0.0096505955,-0.0052823974,0.00044180927,0.019417075,0.016404081,-0.03388975,0.006363985,-0.010184951,-0.017022131,0.0012505859,0.008118346,-0.031237284,0.036052924,-0.032730907,0.0115691265,-0.009405951,0.0009294895,0.008092594,0.007558238,-0.007513172,0.003753367,0.024696253,-0.01614656,-0.01442117,-0.007094701,-0.0011870103,2.448209E-05,0.0067985514,0.020691805,0.0029711472,0.043469526,0.013107814,0.011916779,-0.028095528,0.027477479,-0.009747166,-0.032730907,-0.018515753,0.004529149,0.008118346,0.00816985,-0.02639589,-0.020666052,0.0047544795,-0.015824659,-0.0027039694,0.0063543282,-0.014434046,-0.0148074515,0.0127086565,-0.0033509906,-0.017498545,0.013648608,0.006985254,0.0023128595,-0.008021776,-0.003766243,-0.0031353168,-0.006753485,-0.0016256006,-0.0027490356,-0.018464249,-0.011768705,0.0004824493,-0.0015056925,-0.014253781,0.029022604,-0.02119397,0.010957514,0.019507207,0.0014702834,0.0063929562,-0.0048092026,-0.0059455135,-0.010751497,0.014794575,0.020138133,0.001731828,-0.02385931,0.017653057,0.015940543,0.001087221,0.037855573,-0.0073264693,-0.01057767,0.012084167,0.0031626786,-0.0010566404,0.027580488,0.0027200645,0.017086511,0.006267415,-0.0055399183,0.009206372,-0.0076483707,0.020962201,0.015876163,0.01038453,0.028481811,-0.006959502,0.012509078,-0.018605884,0.0038789085,-0.025018156,0.029254373,0.0064058322,0.014537054,-0.032576393,-0.033065684,0.004532368,0.009322256,0.024696253,-0.0015081067,0.017756065,-0.0027989303,-0.020820564,0.018129472,-0.014228029,0.03141755,-0.011215035,-0.019352695,0.0048607066,0.002448058,0.034533553,-0.006141873,-0.015425501,-0.019017918,0.008684892,-0.010526166,-0.00914843,0.00914843,0.021541623,0.014137897,-0.032524887,0.0046836613,0.015361121,0.023601789,0.019764729,-0.013146441,-0.0041460865,0.034327537,-0.004561339,0.028430307,0.010854506,-0.009953182,0.00095926534,0.002008663,0.00927719,-0.008150537,-0.0047770124,-0.0053757485,-0.005575327,0.053821865,0.014717319,0.029305877,0.021631755,0.0018010368,-0.021232598,0.034198776,0.008214916,0.006090369,-0.00078342686,0.0042169048,-0.016352577,0.0026138371,-0.034095768,0.0014823546,0.012650714,0.021309854,-0.0016545717,-0.00014747094,0.0076612467,-0.008684892,0.019288315,0.018206727,0.018889157,0.013661483,0.0013318659,0.010796564,0.0040752683,-0.0036696726,-0.014846079,-0.037392035,-0.0019426732,-0.010687117,0.014614311,-0.0024915147,-0.007094701,-0.03414727,-0.008543256,-0.0013592275,0.010043315,0.0127086565,-0.019223934,-0.01266359,-0.0007403726,-0.011021894,-0.011137779,0.026833678,-0.0018927786,0.03525461,0.007757817,-0.0097793555,-0.001647329,-0.020408532,-0.017434165,-0.0013350849,0.00829861,0.003476532,0.011054085,0.0004619281,-0.0037340529,-0.015258113,-0.025507445
